<?xml version="1.0"?>
<opencv_storage>
<cascade>
  <stageType>BOOST</stageType>
  <featureType>HAAR</featureType>
  <height>30</height>
  <width>30</width>
  <stageParams>
    <boostType>GAB</boostType>
    <minHitRate>9.9500000476837158e-01</minHitRate>
    <maxFalseAlarm>5.0000000000000000e-01</maxFalseAlarm>
    <weightTrimRate>9.4999998807907104e-01</weightTrimRate>
    <maxDepth>1</maxDepth>
    <maxWeakCount>100</maxWeakCount></stageParams>
  <featureParams>
    <maxCatCount>0</maxCatCount>
    <featSize>1</featSize>
    <mode>BASIC</mode></featureParams>
  <stageNum>3</stageNum>
  <stages>
    <!-- stage 0 -->
    <_>
      <maxWeakCount>2</maxWeakCount>
      <stageThreshold>-3.5693824291229248e-01</stageThreshold>
      <weakClassifiers>
        <_>
          <internalNodes>
            0 -1 1 1.4744949340820313e-01</internalNodes>
          <leafValues>
            -9.5897436141967773e-01 6.4912283420562744e-01</leafValues></_>
        <_>
          <internalNodes>
            0 -1 2 4.4798802584409714e-02</internalNodes>
          <leafValues>
            -9.3988323211669922e-01 6.0203611850738525e-01</leafValues></_></weakClassifiers></_>
    <!-- stage 1 -->
    <_>
      <maxWeakCount>3</maxWeakCount>
      <stageThreshold>-7.3670977354049683e-01</stageThreshold>
      <weakClassifiers>
        <_>
          <internalNodes>
            0 -1 4 -2.0445729023776948e-04</internalNodes>
          <leafValues>
            1. -8.7850469350814819e-01</leafValues></_>
        <_>
          <internalNodes>
            0 -1 3 2.6737584266811609e-03</internalNodes>
          <leafValues>
            -8.5820508003234863e-01 8.2581371068954468e-01</leafValues></_>
        <_>
          <internalNodes>
            0 -1 5 -7.9483565059490502e-05</internalNodes>
          <leafValues>
            1. -6.3992547988891602e-01</leafValues></_></weakClassifiers></_>
    <!-- stage 2 -->
    <_>
      <maxWeakCount>1</maxWeakCount>
      <stageThreshold>1.</stageThreshold>
      <weakClassifiers>
        <_>
          <internalNodes>
            0 -1 0 1.9113916903734207e-02</internalNodes>
          <leafValues>
            1. -1.</leafValues></_></weakClassifiers></_></stages>
  <features>
    <_>
      <rects>
        <_>
          0 0 1 22 -1.</_>
        <_>
          0 11 1 11 2.</_></rects>
      <tilted>0</tilted></_>
    <_>
      <rects>
        <_>
          0 0 22 16 -1.</_>
        <_>
          11 0 11 16 2.</_></rects>
      <tilted>0</tilted></_>
    <_>
      <rects>
        <_>
          2 6 12 22 -1.</_>
        <_>
          8 6 6 22 2.</_></rects>
      <tilted>0</tilted></_>
    <_>
      <rects>
        <_>
          12 6 10 1 -1.</_>
        <_>
          17 6 5 1 2.</_></rects>
      <tilted>0</tilted></_>
    <_>
      <rects>
        <_>
          27 0 2 15 -1.</_>
        <_>
          27 5 2 5 3.</_></rects>
      <tilted>0</tilted></_>
    <_>
      <rects>
        <_>
          27 2 2 2 -1.</_>
        <_>
          27 3 2 1 2.</_></rects>
      <tilted>0</tilted></_></features></cascade>
</opencv_storage>
